{"ip":0,"fr":60,"v":"5.1.20","assets":[],"layers":[{"ty":4,"nm":"finn","ip":0,"st":0,"ind":1,"hix":1,"ks":{"o":{"a":0,"k":100},"or":{"a":0,"k":[0,0,0]},"a":{"a":0,"k":[138.5,85.5,0]},"p":{"s":true,"x":{"a":1,"k":[{"t":0,"s":[275],"e":[270.799997950058],"i":{"x":[0.515],"y":[0.955]},"o":{"x":[0.455],"y":[0.03]}},{"t":30,"s":[270.799997950058],"e":[275],"i":{"x":[0.515],"y":[0.955]},"o":{"x":[0.455],"y":[0.03]}},{"t":60}]},"y":{"a":0,"k":200}},"rx":{"a":0,"k":0},"ry":{"a":0,"k":0},"rz":{"a":0,"k":0},"s":{"a":1,"k":[{"t":0,"s":[100,100],"e":[97,100],"i":{"x":[0.515,0.515],"y":[0.955,0.955]},"o":{"x":[0.455,0.455],"y":[0.03,0.03]}},{"t":30,"s":[97,100],"e":[100,100],"i":{"x":[0.515,1],"y":[0.955,1]},"o":{"x":[0.455,0],"y":[0.03,0]}},{"t":60}]}},"shapes":[{"ty":"gr","nm":"finn shape group","it":[{"ty":"sh","ks":{"a":1,"k":[{"t":0,"s":[{"c":true,"v":[[0.012473,91.4999],[115.512,24],[186.512,1.99999],[184.29,28.3215],[182.512,38],[211.505,56.7174],[221.012,63.4999],[241.429,53.4316],[275.013,40.4998],[274.23,57.5543],[270.513,90.5],[274.083,125.386],[275.013,144.5],[237.793,129.987],[227.012,123],[202.012,134.5],[207.012,156.5],[171.512,167.5],[153.012,137],[147.512,159.5],[113.516,162.5],[113.512,162.5],[58.5125,148],[55.2178,145.747],[0.012473,91.4999],[58.0125,99],[74.5125,82.5],[58.0125,66],[41.5125,82.5],[58.0125,99]],"i":[[0,0],[-57.1995,-3.6000000000000014],[-4.5,-1.9999867813499999],[2.212999999999994,-10.328],[0,-1.3798999999999992],[-9.602000000000004,-7.038499999999999],[-2.0660000000000025,-1.3285999999999945],[-7.431999999999988,5.738899999999994],[-12.787999999999954,-3.1255999999999986],[1.5120000000000005,-10.118899999999996],[0.6480000000000246,-12.4118],[-2.163000000000011,-10.47999999999999],[2.6650000000000205,-1.695999999999998],[11.960999999999984,8.402000000000015],[2.562999999999988,1.2139999999999986],[0,0],[4,-11],[6.5,6.5],[0,0],[5,-3],[11.00099999999999,0],[0,0],[20,10.5],[1.5511000000000053,1.0449999999999875],[3.114827,19.134100000000004],[0,0],[0,9.112700000000004],[9.112700000000004,0],[0,-9.112700000000004],[-9.112700000000004,0]],"o":[[-0.999977,-9.499899999999997],[41.5,-28.5],[3.1210000000000093,1.3866900000000002],[-0.9779999999999802,4.567799999999998],[6.342999999999989,2.1144000000000034],[4.022999999999996,2.948599999999999],[6.259999999999991,0.8633999999999986],[9.784999999999997,-7.555500000000002],[1.719000000000051,0.31269999999999953],[-1.3319999999999936,8.911299999999997],[-1.2889999999999873,11.340000000000003],[2.0329999999999586,9.852000000000004],[-8.762999999999977,5.477000000000004],[-4.418000000000006,-3.103999999999999],[-9.5,-4.5],[0,0],[-4,11],[-5,-3],[0,0],[-4.998999999999995,2.9989999999999952],[0,0],[-11,0],[-0.6052999999999997,-0.4399999999999977],[-12.543599999999998,-8.456000000000017],[0,0],[9.112700000000004,0],[0,-9.112700000000004],[-9.112700000000004,0],[0,9.112700000000004],[0,0]]}],"e":[{"c":true,"v":[[0.012473,91.4999],[118.22920047278348,24],[187.86948421821745,8.10777722251844],[184.29,28.3215],[182.512,38],[211.1653499409021,56.7174],[219.65339976360826,62.82059988180413],[234.75486845466574,55.54372708315975],[262.95323707530395,41.209197819099764],[262.170237075304,58.26369781909976],[258.45323707530395,91.20939781909976],[262.023237075304,126.09539781909976],[262.95323707530395,145.20939781909976],[231.53094819236958,126.6186302760778],[225.0145592863663,123.24968008920422],[202.012,134.5],[211.7671008273711,153.78279952721653],[176.2671008273711,164.78279952721653],[153.012,137],[149.59190659294083,159.5],[113.516,162.5],[115.59190659294083,162.5],[61.35223113572236,148.33408601596733],[57.29770659294083,145.747],[0.012473,91.4999],[58.0125,99],[74.5125,82.5],[58.0125,66],[41.5125,82.5],[58.0125,99]],"i":[[0,0],[-57.1995,-3.6000000000000014],[-4.5,-1.9999867813500005],[2.212999999999994,-10.328],[0,-1.3798999999999992],[-9.602000000000004,-7.038499999999999],[-2.0660000000000025,-1.3285999999999945],[-7.431999999999988,5.738899999999994],[-12.787999999999954,-3.1255999999999986],[1.5120000000000005,-10.118899999999996],[0.6480000000000246,-12.4118],[-2.163000000000011,-10.47999999999999],[2.6650000000000205,-1.695999999999998],[11.960999999999984,8.402000000000015],[2.562999999999988,1.2139999999999986],[0,0],[4,-11],[6.5,6.5],[0,0],[5,-3],[11.00099999999999,0],[0,0],[20,10.5],[1.5511000000000053,1.0449999999999875],[3.114827,19.134100000000004],[0,0],[0,9.112700000000004],[9.112700000000004,0],[0,-9.112700000000004],[-9.112700000000004,0]],"o":[[-0.999977,-9.499899999999997],[41.5,-28.5],[3.1210000000000093,1.3866899999999998],[-0.9779999999999802,4.567799999999998],[6.342999999999989,2.1144000000000034],[4.022999999999996,2.948599999999999],[6.259999999999991,0.8633999999999986],[9.784999999999997,-7.555500000000002],[1.719000000000051,0.31269999999999953],[-1.3319999999999936,8.911299999999997],[-1.2889999999999873,11.340000000000003],[2.0329999999999586,9.852000000000004],[-8.762999999999977,5.477000000000004],[-4.418000000000006,-3.103999999999999],[-9.5,-4.5],[0,0],[-4,11],[-5,-3],[0,0],[-4.998999999999995,2.9989999999999952],[0,0],[-11,0],[-0.6052999999999997,-0.4399999999999977],[-12.543599999999998,-8.456000000000017],[0,0],[9.112700000000004,0],[0,-9.112700000000004],[-9.112700000000004,0],[0,9.112700000000004],[0,0]]}],"i":{"x":[0.515],"y":[0.955]},"o":{"x":[0.455],"y":[0.03]}},{"t":30,"s":[{"c":true,"v":[[0.012473,91.4999],[118.22920047278348,24],[187.86948421821745,8.10777722251844],[184.29,28.3215],[182.512,38],[211.1653499409021,56.7174],[219.65339976360826,62.82059988180413],[234.75486845466574,55.54372708315975],[262.95323707530395,41.209197819099764],[262.170237075304,58.26369781909976],[258.45323707530395,91.20939781909976],[262.023237075304,126.09539781909976],[262.95323707530395,145.20939781909976],[231.53094819236958,126.6186302760778],[225.0145592863663,123.24968008920422],[202.012,134.5],[211.7671008273711,153.78279952721653],[176.2671008273711,164.78279952721653],[153.012,137],[149.59190659294083,159.5],[113.516,162.5],[115.59190659294083,162.5],[61.35223113572236,148.33408601596733],[57.29770659294083,145.747],[0.012473,91.4999],[58.0125,99],[74.5125,82.5],[58.0125,66],[41.5125,82.5],[58.0125,99]],"i":[[0,0],[-57.1995,-3.6000000000000014],[-4.5,-1.9999867813500005],[2.212999999999994,-10.328],[0,-1.3798999999999992],[-9.602000000000004,-7.038499999999999],[-2.0660000000000025,-1.3285999999999945],[-7.431999999999988,5.738899999999994],[-12.787999999999954,-3.1255999999999986],[1.5120000000000005,-10.118899999999996],[0.6480000000000246,-12.4118],[-2.163000000000011,-10.47999999999999],[2.6650000000000205,-1.695999999999998],[11.960999999999984,8.402000000000015],[2.562999999999988,1.2139999999999986],[0,0],[4,-11],[6.5,6.5],[0,0],[5,-3],[11.00099999999999,0],[0,0],[20,10.5],[1.5511000000000053,1.0449999999999875],[3.114827,19.134100000000004],[0,0],[0,9.112700000000004],[9.112700000000004,0],[0,-9.112700000000004],[-9.112700000000004,0]],"o":[[-0.999977,-9.499899999999997],[41.5,-28.5],[3.1210000000000093,1.3866899999999998],[-0.9779999999999802,4.567799999999998],[6.342999999999989,2.1144000000000034],[4.022999999999996,2.948599999999999],[6.259999999999991,0.8633999999999986],[9.784999999999997,-7.555500000000002],[1.719000000000051,0.31269999999999953],[-1.3319999999999936,8.911299999999997],[-1.2889999999999873,11.340000000000003],[2.0329999999999586,9.852000000000004],[-8.762999999999977,5.477000000000004],[-4.418000000000006,-3.103999999999999],[-9.5,-4.5],[0,0],[-4,11],[-5,-3],[0,0],[-4.998999999999995,2.9989999999999952],[0,0],[-11,0],[-0.6052999999999997,-0.4399999999999977],[-12.543599999999998,-8.456000000000017],[0,0],[9.112700000000004,0],[0,-9.112700000000004],[-9.112700000000004,0],[0,9.112700000000004],[0,0]]}],"e":[{"c":true,"v":[[0.012473,91.4999],[115.512,24],[186.512,1.99999],[184.29,28.3215],[182.512,38],[211.505,56.7174],[221.012,63.4999],[241.429,53.4316],[275.013,40.4998],[274.23,57.5543],[270.513,90.5],[274.083,125.386],[275.013,144.5],[237.793,129.987],[227.012,123],[202.012,134.5],[207.012,156.5],[171.512,167.5],[153.012,137],[147.512,159.5],[113.516,162.5],[113.512,162.5],[58.5125,148],[55.2178,145.747],[0.012473,91.4999],[58.0125,99],[74.5125,82.5],[58.0125,66],[41.5125,82.5],[58.0125,99]],"i":[[0,0],[-57.1995,-3.6000000000000014],[-4.5,-1.9999867813499999],[2.212999999999994,-10.328],[0,-1.3798999999999992],[-9.602000000000004,-7.038499999999999],[-2.0660000000000025,-1.3285999999999945],[-7.431999999999988,5.738899999999994],[-12.787999999999954,-3.1255999999999986],[1.5120000000000005,-10.118899999999996],[0.6480000000000246,-12.4118],[-2.163000000000011,-10.47999999999999],[2.6650000000000205,-1.695999999999998],[11.960999999999984,8.402000000000015],[2.562999999999988,1.2139999999999986],[0,0],[4,-11],[6.5,6.5],[0,0],[5,-3],[11.00099999999999,0],[0,0],[20,10.5],[1.5511000000000053,1.0449999999999875],[3.114827,19.134100000000004],[0,0],[0,9.112700000000004],[9.112700000000004,0],[0,-9.112700000000004],[-9.112700000000004,0]],"o":[[-0.999977,-9.499899999999997],[41.5,-28.5],[3.1210000000000093,1.3866900000000002],[-0.9779999999999802,4.567799999999998],[6.342999999999989,2.1144000000000034],[4.022999999999996,2.948599999999999],[6.259999999999991,0.8633999999999986],[9.784999999999997,-7.555500000000002],[1.719000000000051,0.31269999999999953],[-1.3319999999999936,8.911299999999997],[-1.2889999999999873,11.340000000000003],[2.0329999999999586,9.852000000000004],[-8.762999999999977,5.477000000000004],[-4.418000000000006,-3.103999999999999],[-9.5,-4.5],[0,0],[-4,11],[-5,-3],[0,0],[-4.998999999999995,2.9989999999999952],[0,0],[-11,0],[-0.6052999999999997,-0.4399999999999977],[-12.543599999999998,-8.456000000000017],[0,0],[9.112700000000004,0],[0,-9.112700000000004],[-9.112700000000004,0],[0,9.112700000000004],[0,0]]}],"i":{"x":[0.515],"y":[0.955]},"o":{"x":[0.455],"y":[0.03]}},{"t":60}]}},{"ty":"st","o":{"a":0,"k":0},"w":{"a":0,"k":0},"c":{"a":0,"k":[0,0,0,0]},"lc":3,"lj":1,"ml":1},{"ty":"fl","o":{"a":0,"k":100},"r":2,"c":{"a":0,"k":[0.1450980392156863,0.49019607843137253,0.9921568627450981,1]}},{"ty":"tr","o":{"a":0,"k":100},"a":{"a":0,"k":[0,0]},"s":{"a":0,"k":[100,100]},"p":{"a":0,"k":[0,0]},"r":{"a":0,"k":0}}]}],"op":60}],"op":60,"w":550,"h":400}